la 0.005858 -0.008995 0.022139 0.018138 0.043219 0.041097 -0.013802 -0.006672 0.037534 -0.011778 -0.017435 -0.015034 0.002364 0.014264 -0.001038 -0.015074 -0.025273 -0.022518 0.009165 -0.036499 0.010994 0.066796 -0.018310 -0.017212 -0.042466 -0.043339 0.009980 -0.007309 -0.051157 0.033128 -0.025528 -0.031609 0.035964 0.027666 -0.009517 0.041216 -0.026513 -0.013370 -0.040409 -0.000688 0.015935 -0.019379 -0.010443 0.020286 0.060852 -0.000905 -0.005472 0.023921 -0.007793 -0.018726
de -0.001117 0.013230 -0.007170 0.016183 0.001356 -0.016244 -0.012277 -0.002054 0.017711 0.002299 -0.014392 0.021327 -0.005503 -0.010400 0.007747 0.001668 0.003038 -0.011891 0.014361 -0.003886 0.004473 0.010491 -0.006283 -0.011442 -0.008710 -0.025951 -0.009611 -0.009199 -0.007618 -0.002476 -0.018456 -0.031296 -0.013694 -0.013060 -0.007191 -0.010059 0.003656 -0.007107 0.009349 0.009631 -0.001914 -0.012985 -0.001539 -0.023763 0.017556 -0.017378 -0.014942 0.018544 0.002315 -0.011530
est 0.009281 0.017412 0.017343 0.033509 -0.017502 -0.013814 0.002243 -0.021192 0.010994 -0.005055 -0.013748 0.030777 -0.014186 -0.006801 0.006871 -0.007639 0.010263 -0.019610 0.013786 0.001055 0.021746 0.029269 -0.015152 -0.016871 -0.009521 -0.039116 -0.017750 -0.009370 -0.025571 0.001417 -0.018633 -0.041059 -0.017106 -0.020020 -0.009133 0.005968 -0.009702 -0.019432 -0.011441 0.004455 -0.001607 -0.001335 0.016652 -0.026449 0.020372 -0.011488 -0.005220 0.015047 -0.004751 -0.008689
ruche 0.027287 -0.002770 0.033457 0.027527 0.028232 0.047826 -0.000298 -0.015724 0.022872 -0.013523 0.005756 -0.002760 -0.003011 0.013406 -0.002571 -0.028104 -0.017413 -0.019949 0.007627 -0.033811 0.017334 0.056455 -0.007541 -0.028155 -0.036733 -0.040357 -0.011406 -0.003651 -0.046099 0.036406 -0.008467 -0.028180 0.026382 0.017078 -0.013967 0.044373 -0.042604 -0.007772 -0.051958 -0.004068 0.004036 -0.014789 -0.001281 0.022372 0.056139 -0.005859 -0.000457 -0.001540 -0.007690 -0.007472
La 0.034244 0.009360 0.038219 0.035099 -0.010427 0.019300 0.012907 -0.021960 -0.006588 -0.006617 0.013061 0.000770 -0.009228 0.003773 0.001697 -0.020797 -0.003525 -0.020793 0.009831 -0.014114 0.021970 0.022260 0.001787 -0.030974 -0.015422 -0.023031 -0.025436 0.001029 -0.022192 0.014598 -0.009171 -0.023818 -0.011324 -0.010436 -0.007023 0.016157 -0.037716 -0.001174 -0.031912 -0.011078 -0.010265 0.004192 0.010523 0.001850 0.024523 -0.004458 0.003171 -0.015408 -0.001925 -0.003288
degrés -0.009960 -0.009159 -0.016649 -0.010667 0.003145 -0.012818 0.000852 0.001702 -0.012760 -0.001796 0.008657 0.002573 -0.002980 0.001316 -0.019157 -0.002255 0.010844 0.011552 -0.008327 0.004331 -0.001968 -0.015197 0.002766 -0.012706 0.020126 -0.000775 0.007981 -0.002093 -0.004152 -0.007314 -0.003323 0.000504 -0.010783 0.004652 -0.006032 0.011897 0.015492 -0.015173 0.017446 0.001070 0.002169 -0.000814 -0.006784 -0.001878 -0.003686 -0.000465 -0.010361 -0.008568 -0.001224 0.010167
Il -0.013129 -0.011789 -0.018391 -0.001901 -0.007647 0.009169 0.012252 -0.006087 -0.007933 -0.002725 0.000805 -0.027124 0.019254 0.021176 -0.005180 -0.002912 0.003138 0.024153 0.012565 0.011090 0.013683 -0.045465 -0.034966 0.014695 0.001155 0.030130 -0.010708 0.011635 0.006183 0.020387 -0.000993 0.023512 0.005679 -0.008295 0.004358 -0.000982 -0.008733 0.034303 0.012830 -0.003660 -0.002219 0.020333 -0.006711 0.003924 0.000280 -0.003062 0.012758 0.007203 -0.028594 0.016300
température 0.014936 0.020001 0.021118 0.033355 -0.012926 -0.016226 0.015665 -0.016224 0.011623 -0.010752 -0.013780 0.011845 -0.001545 -0.006421 0.001180 -0.000536 -0.001768 -0.021924 0.016479 -0.006141 0.023523 0.029578 -0.012832 -0.019772 -0.012781 -0.026383 -0.013223 -0.008455 -0.016424 -0.012730 -0.017679 -0.020572 -0.013137 -0.008364 -0.012867 -0.010735 -0.019891 -0.007754 -0.010129 -0.013271 -0.008831 0.018177 0.015639 -0.018544 0.004909 -0.001402 0.010378 0.018228 -0.004141 -0.008478
dans 0.002278 -0.017664 0.011785 -0.000409 0.044143 0.038065 -0.015479 0.003121 0.024505 -0.006737 -0.013321 -0.029301 0.011073 0.011416 -0.004848 -0.002057 -0.021085 -0.012230 -0.009431 -0.026896 -0.007624 0.035731 -0.007212 -0.003842 -0.029785 -0.015601 0.025373 -0.001837 -0.028884 0.017944 -0.017776 -0.007735 0.022864 0.037705 0.003797 0.030169 -0.004833 -0.006755 -0.021611 -0.004465 0.017793 -0.015322 -0.019193 0.033430 0.033431 0.011836 -0.003925 0.007549 0.002495 -0.009318
fait -0.009888 -0.005333 -0.021418 -0.004943 0.003987 -0.000427 0.007295 -0.003254 -0.011222 -0.009313 -0.000755 -0.011133 0.013184 0.018575 -0.006754 0.012413 0.001968 0.026327 0.007482 0.020403 0.024015 -0.045452 -0.032835 0.020817 -0.007775 0.027002 -0.011802 -0.009768 0.008416 0.018057 -0.005807 0.022937 -0.004654 -0.003035 0.007919 -0.007960 -0.010299 0.025294 0.024906 0.003482 -0.004782 0.019586 -0.000069 -0.013920 0.007421 -0.004753 0.022171 0.016365 -0.028677 0.005915
a -0.014568 0.001595 0.005210 0.000315 -0.022416 -0.017663 -0.002918 -0.001445 -0.004610 0.012121 -0.015365 0.006833 0.011640 0.000922 0.010827 -0.015511 -0.001315 0.000359 -0.009817 0.019175 0.007452 -0.028961 -0.010540 0.000845 -0.007651 0.015344 -0.007626 0.007381 0.002704 -0.013414 0.000295 -0.000279 -0.006623 -0.003947 0.005064 -0.029275 0.007257 0.016000 0.011803 -0.006807 -0.002405 -0.003614 -0.006806 -0.002366 -0.016234 0.010640 -0.009920 -0.002645 0.024168 0.008320
d'humidité 0.008892 0.015884 0.001862 -0.000721 -0.018824 -0.020297 0.003349 -0.010398 -0.005549 -0.000577 0.016732 0.008548 -0.024388 -0.017591 0.001928 -0.008621 0.015926 0.011148 -0.007114 -0.009756 0.002892 0.007787 -0.002531 -0.000021 0.008911 0.015549 -0.006991 0.006085 0.013747 -0.002276 0.016731 -0.005154 -0.022567 0.006543 -0.009150 -0.005607 0.013644 -0.025630 0.011727 -0.006690 -0.007916 -0.008572 -0.007346 -0.006424 0.000163 -0.013592 -0.009133 -0.012411 0.004640 0.004092
y -0.007202 -0.010713 0.004983 0.004421 -0.021126 -0.009037 0.019266 -0.001244 -0.002450 0.006233 -0.017424 -0.005223 0.021641 0.007152 0.005454 -0.020380 0.010576 0.009073 0.005381 0.001656 0.001424 -0.039291 -0.017786 0.005078 0.002914 0.020945 -0.016605 0.017330 0.005954 0.007126 -0.006072 0.000898 0.006989 -0.008144 0.013978 -0.028185 0.004073 0.020916 0.014236 -0.015163 0.004715 0.007236 -0.012044 0.013240 -0.011792 0.010928 -0.001600 -0.007333 0.009775 0.022463
cadres -0.002058 0.003671 -0.005048 -0.006558 -0.007176 0.005324 0.012749 -0.022306 -0.003504 0.018150 0.016169 0.015335 0.001447 -0.010009 -0.008375 0.013891 0.002087 0.013768 -0.006519 -0.016196 0.010811 -0.009788 -0.003011 0.001760 0.000328 0.000848 -0.002801 0.002858 0.000351 0.011426 0.001731 0.004649 0.003916 -0.004301 -0.013586 -0.001445 -0.001569 0.026153 0.003284 -0.005971 0.010335 -0.006143 0.008866 0.006834 -0.004678 -0.000872 -0.003333 0.009630 -0.001564 0.002603
il 0.002349 -0.019016 0.001464 0.006577 0.001250 -0.005249 0.010655 -0.006222 0.000529 0.007496 -0.013074 0.003248 0.008969 0.005961 0.017764 -0.005872 -0.000282 0.010817 -0.011019 -0.008136 -0.004978 -0.006789 -0.009126 0.009220 0.008009 0.001547 -0.018260 0.002776 -0.005226 -0.013005 -0.004277 0.017580 -0.002749 -0.008201 0.007947 -0.012322 0.010136 -0.003056 -0.005705 0.002472 0.010147 -0.014600 -0.005461 0.017671 0.001229 0.018161 -0.008367 -0.014071 0.007850 0.008882
kilos -0.003384 -0.011537 -0.009709 0.000613 0.001647 0.004117 0.003150 0.013144 0.019692 -0.008978 -0.019009 0.011754 0.006620 -0.006771 -0.007780 -0.013250 -0.009366 0.005258 -0.003094 -0.006782 -0.015797 0.006527 -0.005290 0.011479 0.017066 0.006403 0.002889 0.005520 -0.003139 0.003686 0.007377 0.003682 -0.006420 0.002230 0.006847 -0.015327 0.011301 -0.009418 0.003225 0.007000 -0.008030 -0.007159 -0.005733 0.017807 0.008980 -0.008659 -0.020081 0.019816 -0.006865 0.002551
les 0.007281 0.005160 -0.014245 -0.009130 -0.004539 0.018692 0.012880 -0.006818 0.009132 0.021777 0.009140 0.018667 0.002843 0.003404 0.001659 -0.003214 -0.006205 0.006587 -0.005303 -0.005384 -0.003582 0.000092 -0.008463 -0.010376 -0.012136 0.002376 -0.005553 0.004062 -0.004813 0.000988 -0.001036 0.003995 -0.000210 0.008300 0.011913 -0.002284 0.006810 0.014744 -0.001980 0.012986 0.000918 -0.005092 0.012100 0.004596 0.005777 -0.008660 -0.006751 -0.002409 -0.010500 0.006119
le 0.007850 0.013881 0.010354 -0.003658 -0.003064 0.009721 0.010641 0.008513 -0.001862 0.011527 -0.003976 -0.001107 0.012511 -0.001050 -0.003541 -0.017406 0.004733 0.003615 0.004809 0.002587 -0.003939 0.001726 0.017225 0.006767 0.004196 0.004807 0.002804 0.006266 0.014519 -0.016315 0.003948 0.000644 0.003575 0.001739 0.007261 0.002548 0.008353 0.005656 -0.013667 0.012164 -0.007073 0.000448 -0.008976 -0.017113 -0.008465 -0.009169 -0.003797 -0.003619 0.017189 0.014881
pas 0.009682 -0.008533 -0.018931 -0.009564 -0.003926 0.005075 -0.013605 -0.001163 -0.006660 0.000573 -0.009850 0.017357 -0.001870 0.007714 0.012633 0.005156 -0.002074 -0.003698 0.014442 -0.013965 0.009277 -0.003209 0.005447 -0.002641 -0.004774 0.009153 0.009028 -0.008571 0.007180 -0.003908 0.018879 -0.001878 0.007178 -0.012451 0.009635 0.004079 0.014945 0.001138 0.025440 -0.006330 0.005148 -0.013133 -0.017859 0.003723 -0.001508 0.012136 -0.014885 -0.000408 0.008777 0.000123
10 -0.001158 -0.003326 -0.014300 0.014753 0.013405 0.003376 0.004230 -0.007568 0.009554 -0.003070 -0.016942 0.005627 -0.010816 -0.014128 -0.008542 -0.009734 0.015840 0.002931 -0.009010 -0.014587 0.001549 0.000192 -0.006290 0.013946 0.006373 0.008395 0.002327 0.018763 0.015005 0.006809 0.010542 -0.000579 0.006740 -0.003576 -0.007174 -0.001795 0.001191 -0.008947 0.010862 0.005172 -0.009860 0.010500 0.007586 0.006674 0.019114 0.000392 -0.010149 0.019696 -0.001445 0.006137
25 0.005630 -0.015733 -0.007936 -0.001477 0.007176 -0.020021 -0.002022 0.009284 0.017341 -0.012289 -0.014562 -0.008518 0.014075 0.005375 -0.016835 -0.004872 0.003394 -0.004028 0.007601 0.012627 0.001762 -0.008967 -0.003127 -0.008084 -0.005992 -0.000455 0.005186 -0.008476 0.002208 0.002638 -0.000829 0.008174 -0.012197 -0.005237 -0.013698 -0.008648 -0.000348 0.003374 0.006289 -0.005513 0.010522 0.009295 -0.018805 0.005465 0.011275 -0.016987 0.005796 -0.004821 0.005842 0.009783
Les -0.008287 -0.015301 -0.000870 -0.001213 -0.005540 -0.003428 0.006624 -0.017867 -0.007327 0.015825 0.009495 0.004769 0.002585 0.013981 -0.015440 0.001781 -0.005840 0.016828 -0.005446 -0.018101 0.010807 0.001535 -0.009809 -0.003007 -0.000892 -0.000631 -0.000513 0.015144 -0.016279 -0.007770 -0.002137 -0.003248 -0.008356 -0.003299 -0.007139 -0.013494 0.011095 0.027154 -0.005213 -0.015275 0.011565 -0.002739 0.009821 -0.007813 -0.007020 -0.003452 -0.012129 0.008133 0.007890 0.003930
aujourd'hui -0.005679 0.009438 0.003528 -0.011299 -0.013393 0.002603 0.011458 -0.019936 -0.001830 -0.006610 0.002069 -0.004185 0.006499 -0.003491 -0.005875 -0.008946 0.008416 -0.008987 0.003932 -0.003989 -0.000629 -0.018028 0.003604 0.013057 -0.000568 0.000760 -0.000947 0.005769 0.008554 0.004476 -0.001952 0.003108 -0.004808 0.000880 0.012177 0.002269 -0.000595 0.001825 0.004740 0.002313 -0.001952 0.006731 0.000796 0.005375 0.001828 -0.003954 0.018123 -0.008360 0.004006 0.002085
poids -0.020819 0.004882 -0.009291 0.017570 0.002230 -0.009406 0.014072 0.014066 -0.002873 -0.005691 0.005088 -0.003526 0.007757 0.007784 0.017302 -0.005730 0.012189 -0.003936 -0.003337 -0.002861 -0.007573 -0.003855 -0.003199 -0.002058 0.011117 0.008187 -0.001581 0.016572 0.013168 -0.010032 0.009679 -0.003027 -0.016113 0.000006 0.011073 -0.009901 -0.006871 -0.001189 0.005143 -0.010787 -0.003095 0.011097 -0.004404 0.009322 -0.012564 0.010308 0.006160 -0.019715 0.004380 -0.002627
sont -0.001117 0.003335 0.007781 -0.004420 -0.012496 0.012585 -0.002644 -0.017787 -0.002912 -0.005048 0.013695 0.012232 -0.001204 -0.012544 -0.000543 0.012421 0.002869 0.002528 -0.015434 -0.010404 0.001474 0.011559 0.007440 0.007744 -0.007307 -0.004023 -0.010348 -0.005828 0.000485 -0.007144 0.009911 -0.000990 0.013669 -0.004738 -0.008369 0.001033 0.006586 -0.007833 -0.015008 0.006535 0.004100 -0.004123 0.003441 0.003332 -0.015482 0.003958 0.007173 0.011090 0.000575 0.014902
à -0.004645 0.008987 0.006011 -0.016850 -0.001269 0.004737 -0.004917 -0.002946 0.004294 0.005556 -0.000596 0.003947 -0.006383 -0.001546 -0.008143 -0.008814 -0.010860 0.007928 -0.004392 0.018348 -0.013613 -0.011976 -0.003490 0.009767 0.004797 0.001529 0.004927 0.011848 -0.002002 -0.008164 0.001272 -0.000991 -0.019564 0.008640 -0.001088 -0.004394 0.003762 0.011858 0.020274 0.000971 -0.005944 0.016119 -0.002730 -0.005138 -0.011694 -0.019956 -0.014425 -0.003851 0.012977 0.004885
18 -0.000417 -0.002571 0.000424 -0.013220 0.008678 -0.000810 -0.010298 0.000182 0.010289 0.006019 -0.003057 0.004163 0.006573 0.004736 -0.016559 0.009162 -0.000634 0.005881 -0.003735 0.001242 -0.005084 -0.010802 0.010656 -0.005230 0.009472 -0.006139 0.007057 -0.018466 0.005079 -0.014025 -0.005391 0.008255 0.008278 0.003284 -0.000952 0.014747 0.006720 -0.013193 0.016433 -0.004631 0.015275 -0.016024 -0.022994 0.001604 -0.012105 -0.010804 -0.013945 0.004357 0.013619 0.009767
J'ai -0.013231 -0.022649 -0.006699 -0.004087 0.009716 -0.014983 0.007447 0.013188 0.011941 -0.009899 0.003990 -0.015594 -0.016858 -0.002475 -0.013689 0.030727 -0.000996 0.000855 0.009520 -0.004019 -0.004721 0.012888 0.000315 -0.009588 -0.016123 0.001007 0.007219 0.011707 -0.011364 -0.012146 -0.016690 0.008892 -0.010505 -0.017314 0.005885 0.000924 -0.007092 -0.005834 0.004235 -0.001626 0.006458 0.009517 -0.004146 0.010008 0.003244 0.011235 0.008561 0.013294 -0.019352 -0.013481
Le 0.000648 -0.012943 -0.004608 0.019326 -0.009442 -0.000380 0.000791 -0.007751 0.007100 -0.011526 -0.000768 -0.009849 -0.003261 -0.000774 0.001034 0.011948 0.011868 -0.012588 -0.000537 0.012891 0.009209 -0.018483 0.006820 -0.001682 -0.004830 -0.003986 -0.000246 0.005255 0.000835 -0.013027 0.007258 0.004277 -0.004918 -0.002024 -0.002179 0.008396 -0.006073 -0.004288 -0.000973 -0.015436 0.001094 -0.005271 -0.001249 0.002577 -0.015102 0.002174 0.017895 -0.008554 0.008397 -0.005540
degré -0.000524 -0.005002 -0.012448 -0.009514 0.012992 -0.000086 -0.011551 -0.003501 0.003664 0.008141 -0.005438 -0.002505 0.005528 0.010784 -0.006638 0.016090 -0.009943 0.014110 0.008128 -0.003235 -0.011690 -0.001902 0.001151 0.013518 -0.004898 -0.002467 0.010433 -0.013030 0.009976 -0.004130 0.000961 0.009941 -0.006048 0.011785 0.002527 -0.012369 0.017800 -0.003471 0.003725 0.009715 0.005926 -0.010227 -0.012191 -0.011763 0.003356 -0.011714 0.011784 -0.008126 0.022726 0.009848
en -0.002913 0.015391 -0.012637 -0.013452 0.001231 0.003411 0.013977 -0.006882 -0.013748 0.012761 -0.005414 0.014745 0.008249 0.003877 -0.006746 0.003773 0.017405 0.007466 -0.001168 0.012190 -0.008037 -0.005945 0.000751 -0.003969 -0.012554 -0.015606 -0.004830 -0.006072 -0.013887 -0.003419 0.006930 -0.004339 0.007979 -0.006889 0.005168 -0.002938 0.001872 -0.003089 0.008983 0.007749 -0.008309 -0.013184 0.003649 0.003429 -0.015362 -0.006831 0.006448 0.001976 0.002460 0.007389
l'extérieur -0.006022 0.003718 -0.007706 0.004455 0.006337 0.001655 0.000635 0.002143 0.007372 0.004522 -0.009496 0.002436 -0.007343 0.004918 -0.010659 -0.013300 -0.000146 -0.007944 -0.003750 -0.002318 -0.002966 -0.001912 -0.005116 -0.006986 -0.011028 0.012667 0.014310 -0.003919 -0.002617 -0.002601 0.004905 0.013103 -0.000982 -0.000996 0.002532 -0.015197 0.013912 -0.009255 0.012683 -0.000969 -0.011749 0.002153 -0.018546 0.001932 0.000067 -0.013652 -0.013122 0.008309 0.002588 -0.011389
miel 0.002832 -0.013386 -0.002438 0.010957 -0.002520 0.007361 0.000823 0.010746 0.005317 -0.002370 0.008627 -0.008588 -0.015998 0.006545 -0.003623 -0.013136 0.001234 -0.019852 0.017937 0.022492 -0.009167 -0.007602 -0.000201 0.012195 -0.002977 0.008409 0.004858 0.006804 -0.008923 -0.010812 0.007462 0.011695 -0.001800 0.006554 -0.000674 -0.001603 -0.007901 -0.000867 0.001448 -0.004082 0.000241 -0.004434 -0.010291 0.002151 -0.000734 -0.011806 0.014662 -0.004812 -0.005586 0.007179
pour 0.000701 0.000079 -0.005738 -0.009832 -0.001897 0.005593 -0.000691 -0.009529 -0.005027 -0.011700 -0.006675 0.005352 0.011297 -0.002147 0.000726 -0.000275 -0.008833 0.003874 0.004709 -0.010908 -0.023142 -0.000870 -0.011920 0.009754 0.005153 -0.005888 -0.000824 0.001178 0.003606 0.003071 -0.000705 -0.012436 0.006728 0.010851 -0.000239 -0.014864 0.000386 -0.003089 -0.002756 0.010368 0.002263 0.008168 -0.007817 -0.000837 -0.012765 -0.004004 -0.006251 0.003609 0.001881 0.004611
pris -0.020567 0.003389 -0.007075 0.011468 0.004720 0.004832 0.011520 0.004402 -0.011003 -0.005420 -0.003329 -0.007962 -0.014350 0.007093 0.014789 -0.004552 0.005103 0.007687 0.009185 -0.010517 -0.008881 -0.003070 0.003897 -0.010776 0.011979 0.005179 0.006080 -0.004124 0.007185 -0.014115 0.010425 0.005867 0.009855 0.004611 0.017823 0.011768 -0.006604 0.002949 0.017898 0.000827 -0.000219 0.013762 0.013765 0.006446 -0.008473 0.011430 -0.000707 -0.006740 -0.004921 -0.014228
que 0.007277 0.005370 -0.008193 -0.005460 0.014166 -0.007657 0.016918 -0.013588 0.014492 -0.012704 0.016169 -0.001697 -0.004414 -0.002775 -0.003791 0.011933 -0.010984 -0.003735 0.002500 -0.010041 0.016808 -0.006374 -0.008154 0.002134 0.008264 0.018179 -0.001627 -0.013612 0.013547 0.003996 -0.005360 -0.000374 -0.007427 0.005701 0.013344 0.002750 0.000339 0.014365 -0.008404 0.011837 0.014864 -0.016614 0.013488 -0.008104 -0.001001 -0.013984 0.001186 0.012261 0.003242 0.002455
ruche, -0.000635 -0.001368 -0.001071 0.001112 -0.009252 -0.003692 0.000868 -0.003341 0.004927 0.008457 0.002600 0.001588 0.016174 0.013622 -0.004596 -0.007920 -0.008699 0.002521 0.011757 0.002688 -0.000743 0.020611 0.017564 0.014256 -0.002414 -0.001336 0.014760 0.011537 0.003867 -0.003309 0.014098 0.000187 0.021108 -0.007067 -0.012410 0.005512 0.002772 0.006429 -0.013143 0.009408 -0.006071 -0.000768 0.001909 -0.013817 -0.000884 -0.003364 0.002579 0.009975 0.007380 -0.000614
taux 0.010534 0.017262 0.012164 -0.003694 -0.018603 0.007854 -0.004930 -0.003132 -0.011476 0.008289 0.020137 -0.000187 -0.002196 -0.018182 0.005375 -0.006516 0.014352 0.014253 0.009318 -0.008759 0.001248 -0.004267 0.022619 -0.005927 -0.000161 0.025061 -0.000640 0.005862 0.011989 -0.006759 0.022682 0.007830 -0.013683 0.004879 -0.016276 -0.000645 0.000674 -0.010782 -0.000988 0.004692 -0.002624 -0.007307 -0.017513 0.001112 -0.006714 0.006103 0.001063 -0.020329 0.010126 0.006305
très 0.006841 -0.002580 0.002552 -0.004448 0.002344 -0.005786 -0.003871 -0.009973 -0.002492 -0.005933 -0.021016 0.012716 0.006332 0.000198 0.011245 0.010283 0.014900 0.004058 -0.014295 0.006309 -0.012799 -0.002569 -0.010651 0.013335 -0.000564 -0.001705 -0.006990 0.009153 -0.018122 0.012443 -0.007792 -0.010860 -0.013629 -0.013404 0.008877 0.015286 0.013440 0.001744 0.008964 0.016172 -0.002427 -0.013225 -0.001669 -0.017970 0.005425 0.008678 0.017508 0.005753 -0.005035 -0.019593
"A15" 0.001894 0.000147 -0.000434 -0.009457 0.004329 0.002715 0.004759 -0.009084 -0.002419 -0.004414 0.005786 0.005891 0.006747 0.014152 -0.008705 -0.001519 0.002665 0.013973 -0.011558 0.012680 -0.005487 -0.000801 -0.008068 0.002630 0.001973 0.000701 -0.003756 0.012049 -0.009890 0.003684 0.002019 0.013418 0.004367 0.015731 0.000482 0.006361 -0.013997 -0.013105 -0.014501 -0.013320 0.000772 -0.006805 0.012502 0.009935 -0.007280 0.002726 0.012869 -0.010832 -0.002831 0.000483
% -0.006175 -0.002573 -0.000526 -0.000892 -0.003420 -0.002997 0.011703 0.006664 0.011672 -0.005652 0.005382 0.007874 0.011740 -0.002197 0.004771 -0.004538 -0.007803 0.005550 0.007965 -0.002891 0.006754 0.000240 0.010015 -0.007221 0.010478 0.009367 0.003101 -0.016967 0.011776 0.002862 -0.010577 -0.001526 -0.006048 0.007834 -0.002273 -0.007066 -0.006105 0.012154 0.007175 0.004808 0.005291 -0.011917 0.005985 -0.002573 -0.009024 0.004323 -0.006865 0.001762 -0.002356 -0.016355
15 0.003067 0.003215 -0.016183 -0.004921 -0.003858 0.003549 -0.015573 0.000324 0.013209 0.010390 0.008541 -0.000654 0.007188 0.000215 -0.004174 0.004601 0.008282 0.015718 0.006931 -0.005470 -0.007319 -0.007146 0.000213 0.001593 -0.008812 -0.006536 -0.004115 -0.010789 0.009311 -0.002533 0.011784 0.013505 -0.018081 0.000556 0.009637 -0.006415 0.007338 0.012628 -0.001011 -0.000680 -0.000446 -0.016686 0.010814 0.006579 0.002605 0.005260 -0.010643 -0.006042 0.000872 -0.000112
22 0.013415 -0.008363 -0.014392 -0.009671 0.004138 -0.002796 -0.010894 0.012782 0.000596 0.006011 0.001524 0.010012 -0.008351 -0.001278 -0.004037 -0.009940 0.000963 -0.006372 0.003019 -0.004676 0.008629 0.007064 -0.012134 -0.003014 -0.002419 -0.001781 0.009811 0.010057 -0.004376 0.002795 0.001193 -0.006140 0.017375 0.012344 -0.015305 0.001068 -0.007686 -0.007127 -0.006682 0.012174 0.001457 0.009613 0.001586 0.011939 0.006932 0.002758 0.000062 0.007256 0.011537 0.007748
30 0.000144 -0.006333 0.007335 -0.004000 -0.009238 0.005762 0.007264 0.003651 0.001094 0.010828 -0.001039 -0.007933 0.011762 0.009586 -0.003382 -0.009463 -0.002771 0.014203 -0.001953 -0.008796 -0.010173 0.006761 0.014715 -0.013331 0.000903 -0.000323 0.006783 0.007898 0.009836 0.008502 0.011812 -0.004584 0.005373 0.002129 -0.007103 -0.007128 -0.007971 -0.000773 -0.000403 -0.008872 -0.010241 -0.004613 -0.018984 0.002111 0.002889 0.001764 0.009583 0.006323 -0.006875 -0.009809
: 0.004454 -0.002012 0.006880 -0.014959 -0.000663 0.003332 -0.007345 0.005342 -0.007580 -0.015275 -0.010001 0.002930 0.012488 -0.003284 -0.001892 0.008865 -0.012381 -0.001824 -0.003930 -0.004158 -0.000725 -0.006728 -0.002854 0.011198 -0.016201 0.002388 -0.001842 0.010228 -0.007006 0.007015 0.002849 0.017963 0.003801 -0.009248 0.008377 0.002141 0.001996 0.002733 0.012421 0.012830 -0.016309 0.000236 -0.008141 -0.008870 -0.003263 0.012278 0.022665 0.006511 0.002921 -0.005985
baisse 0.008763 0.017782 0.012608 -0.009447 -0.005002 -0.008409 0.013396 0.004494 0.000866 -0.000442 -0.012771 0.002403 0.003772 -0.001825 -0.012716 0.006052 -0.002399 -0.008067 -0.009713 0.009885 -0.010180 -0.011139 0.001434 0.008365 0.015118 -0.009190 0.003889 -0.002243 -0.004452 -0.000453 -0.002682 -0.015444 -0.003944 0.009159 -0.000818 -0.009060 0.005367 0.011723 0.004833 -0.011866 -0.016387 0.006667 -0.008850 0.006552 -0.004070 -0.003118 0.013067 -0.002083 0.008162 -0.013888
beaucoup -0.001866 0.000113 0.003514 0.003811 -0.013906 -0.011642 -0.010126 0.007866 0.002396 0.014820 0.003989 0.009928 -0.009733 0.011160 -0.011282 -0.014827 -0.001763 0.018396 0.001475 0.008992 0.003549 0.004983 -0.005828 0.012085 -0.002991 0.017965 0.002571 0.014203 0.003081 0.002533 0.020808 0.000257 0.000674 0.002659 0.003390 0.011504 -0.000403 -0.007412 0.008997 0.000833 -0.015762 0.008968 0.011797 -0.004054 -0.003699 -0.000260 0.001420 -0.003541 -0.000527 0.010491
bien -0.007457 -0.011048 -0.006885 -0.013798 -0.001709 -0.014466 0.013838 0.012651 0.008710 -0.006235 0.005798 -0.019881 -0.001704 -0.010883 -0.015729 0.031291 0.001047 0.003967 0.005466 0.006287 0.005283 -0.009205 0.012950 -0.014944 -0.008837 -0.000318 0.008746 -0.001932 -0.010894 -0.006754 -0.006634 0.015741 -0.007349 -0.009627 0.002430 0.006854 0.003233 0.009672 0.001304 -0.006183 0.007677 0.008033 0.001299 0.012794 -0.013123 0.015477 0.014116 0.012454 -0.015662 -0.009040
c'est -0.001301 0.006848 0.006922 0.000369 0.003353 0.002539 -0.005342 -0.003222 0.014171 0.010439 -0.003888 -0.001037 -0.011215 0.012069 -0.001936 -0.002139 -0.004007 -0.011347 -0.007240 -0.007722 -0.005667 -0.007690 0.016749 0.004426 0.003594 0.011853 -0.006449 -0.010275 0.001395 0.003891 -0.013439 0.003699 0.010778 -0.002618 0.008020 -0.008379 0.000243 0.000565 0.011326 -0.006297 -0.008657 0.001192 -0.006141 -0.003663 -0.006655 -0.005575 -0.006489 -0.006931 0.001495 -0.012569
ce 0.017006 0.002498 -0.019535 -0.002777 0.004018 0.011225 -0.006595 -0.004688 -0.014913 -0.002709 0.000247 -0.009822 0.008353 0.015760 0.012966 0.000308 -0.003980 -0.005403 -0.010512 0.007356 0.001423 -0.006805 0.004013 0.000213 0.006951 -0.003724 0.014387 -0.000446 0.000605 -0.017995 -0.010786 -0.001264 0.005699 -0.009664 -0.001580 0.007578 0.017296 -0.011724 0.002146 -0.013177 0.005017 0.001075 -0.005061 -0.005003 -0.005982 -0.012049 -0.005294 -0.009417 0.001822 0.003014
chaud -0.016201 -0.003430 -0.022824 -0.016732 -0.022067 -0.004629 0.021256 -0.018484 -0.022849 -0.018898 -0.010101 0.000346 0.004862 -0.001774 -0.003265 -0.007867 -0.001735 0.012063 -0.007681 0.006794 -0.003665 -0.018329 -0.005925 0.012259 -0.007745 0.010601 -0.002008 -0.001502 0.012765 0.001800 -0.001534 0.016316 -0.006430 -0.004308 0.000394 -0.005525 0.019878 0.000797 0.008741 0.001025 -0.003938 -0.004878 0.000514 -0.002733 0.004074 0.014938 -0.004766 0.003991 0.002277 0.004339
d'eau -0.000611 0.015247 -0.002899 0.003123 0.008842 0.002254 -0.011674 -0.013770 0.008269 0.006193 0.010127 0.007814 -0.015875 -0.000205 -0.001580 0.010990 0.003301 -0.000288 0.005399 0.004596 0.002053 0.000398 0.006495 -0.001546 -0.014184 -0.006560 0.012592 -0.014244 0.000886 -0.007171 -0.001237 -0.001258 -0.014199 -0.006641 0.002980 -0.003540 0.002425 0.008722 0.001334 0.016379 -0.006420 0.001928 0.002350 0.000806 -0.001807 0.004424 -0.008531 -0.002831 -0.001876 0.015935
depuis 0.003547 -0.003989 -0.004170 0.001891 0.004774 -0.007904 -0.001969 -0.004628 0.009898 0.011358 0.011630 -0.012495 0.002483 -0.013285 0.014439 0.017440 -0.013239 0.001245 -0.006995 -0.019738 -0.001389 -0.006348 0.000754 0.004311 0.000580 0.005547 -0.008607 -0.001805 0.005823 -0.010467 -0.001313 0.007916 0.008124 -0.005285 0.008828 -0.010041 0.007853 0.003124 -0.013498 -0.002574 -0.007040 -0.003493 0.005208 -0.004871 -0.016276 -0.002351 -0.008888 -0.007410 -0.001968 0.007464
des -0.006348 0.007106 0.013149 -0.005132 -0.000554 -0.010651 -0.005636 0.000364 -0.000730 0.008529 0.018381 0.006078 -0.012763 -0.012815 -0.010464 0.012858 0.000605 -0.011633 -0.008721 0.018742 -0.000490 -0.006088 0.003431 0.016560 0.009221 -0.006007 0.005648 0.012482 0.013112 -0.015360 -0.008812 0.008850 0.004429 0.006440 -0.012036 0.003667 0.002584 -0.004803 -0.005096 -0.001580 0.003072 -0.018299 0.007889 -0.008344 -0.007872 0.007768 0.005395 -0.010769 0.003106 -0.002412
froid 0.001590 -0.000956 -0.003403 -0.004312 -0.005404 0.009631 0.004731 -0.005748 -0.000210 -0.007434 0.007138 0.010669 0.005200 -0.006059 0.014343 -0.002191 0.000007 -0.001916 -0.014050 0.004395 -0.000791 -0.021298 -0.017886 0.019845 0.008445 0.002292 -0.001204 -0.004006 0.004544 0.001258 0.001307 0.006090 -0.004188 -0.001357 0.002138 -0.005832 -0.002913 0.005348 0.021361 0.001391 -0.007263 0.005298 0.011604 -0.005588 0.009440 0.004740 0.017486 0.011239 -0.001922 0.000546
je -0.002759 -0.011286 -0.008020 0.011747 0.013711 -0.014810 0.010919 -0.007696 0.008735 -0.005690 -0.012105 -0.012047 -0.002430 -0.007890 0.008623 0.015955 0.009351 -0.009909 0.009741 -0.009684 0.004325 -0.010493 -0.000688 0.003112 -0.015218 0.003930 -0.001787 -0.005781 0.006901 -0.004753 0.004889 0.001718 0.002603 -0.002315 -0.004898 -0.003104 0.010145 -0.013744 0.010873 -0.003461 0.004071 0.000983 0.002253 -0.001719 -0.007503 -0.008465 0.014844 0.000583 0.004295 0.004968
légère 0.007840 0.014542 0.006427 0.013457 -0.001482 0.007312 -0.007208 -0.002261 -0.006805 0.007684 0.001812 0.000423 -0.005918 -0.000089 0.014125 0.013517 0.012106 -0.018182 -0.001015 0.007965 0.002413 -0.003058 -0.011531 0.006479 -0.003041 0.002749 0.000370 0.012969 0.006794 -0.019147 0.003970 0.017236 -0.001229 -0.012697 0.008804 -0.000653 0.002886 -0.001846 -0.001606 -0.002113 0.007494 0.001287 -0.002423 -0.003088 -0.003888 -0.008993 0.010083 -0.011479 -0.007893 -0.007114
lourd -0.002440 0.012207 0.002611 -0.017828 -0.015116 -0.015394 0.001534 -0.002606 -0.008751 0.008623 -0.000273 -0.015285 0.005919 0.012243 -0.008435 -0.011160 -0.008763 -0.011197 0.003473 -0.011878 0.015530 0.001523 0.007725 -0.006506 0.000670 0.018033 0.003714 -0.011532 -0.011459 -0.003490 0.002712 0.005729 -0.010567 0.003385 0.010076 -0.008333 -0.009716 -0.008796 0.013464 -0.001667 -0.001698 -0.007411 -0.016781 -0.012930 0.003063 -0.004008 -0.006485 -0.005998 -0.015617 -0.003614
lourds 0.019700 0.000037 -0.007201 -0.004180 0.002515 0.005686 -0.002704 0.012929 -0.005840 -0.009958 -0.006528 -0.018890 0.001560 -0.000723 0.012392 0.013769 -0.007856 -0.019808 0.003654 -0.008348 -0.000448 -0.001192 -0.005947 -0.010505 0.001102 -0.012702 0.002592 0.013372 -0.007715 -0.000258 0.000221 -0.007222 0.003767 -0.011733 -0.013824 0.006070 -0.005073 -0.020279 -0.005924 0.012039 -0.002124 -0.008017 0.012418 -0.001743 -0.009814 0.005805 -0.006020 0.000348 0.006871 0.018432
même 0.007409 -0.004634 0.005249 -0.000933 -0.002868 0.010653 -0.000618 0.013374 0.005322 0.000285 -0.010791 -0.006082 0.004775 -0.000636 0.004556 -0.012854 -0.004998 -0.015235 -0.016883 0.006475 0.002224 -0.006501 0.001051 -0.017142 0.003535 0.005173 -0.005378 0.003504 -0.006925 -0.009992 -0.006239 -0.000511 -0.012503 0.017270 -0.000658 -0.016805 0.010691 -0.004946 -0.006822 -0.005203 -0.002239 0.005681 -0.008825 0.002244 0.001447 -0.004471 0.011357 -0.004148 0.001939 0.014416
mieux -0.014774 -0.012306 -0.017177 -0.017178 0.010021 -0.010509 0.002601 -0.008433 -0.000276 -0.007709 0.008417 0.001267 0.002863 0.002656 -0.001610 0.007062 -0.007844 -0.001919 -0.000062 -0.011409 -0.005971 0.001215 0.002176 0.000857 -0.009313 0.001086 -0.008935 0.005466 0.001908 -0.015222 0.012132 0.003061 -0.008546 0.017075 -0.010819 -0.000987 0.006900 0.011360 0.013998 0.008803 0.002546 -0.000536 0.009179 0.003173 -0.000807 0.006407 0.008851 -0.003532 0.004818 -0.008747
n'est 0.003965 -0.008075 -0.015853 -0.001358 0.003204 0.007240 -0.014750 0.007244 -0.018599 -0.005508 -0.002029 0.009333 0.004372 -0.004368 0.015170 -0.006957 -0.001564 -0.002555 0.003536 -0.013559 0.002531 0.004952 -0.000554 0.004480 0.003779 -0.017028 -0.001548 -0.001563 0.008796 0.000257 0.011791 0.007166 -0.001608 0.013600 -0.012051 0.001698 0.005680 -0.004794 0.009664 0.003115 -0.004763 0.001221 -0.012763 0.001833 -0.000883 0.001880 -0.011953 -0.000537 0.002494 -0.008919
ont 0.001441 -0.005061 0.002501 0.007302 -0.001731 -0.014170 0.002666 0.001471 0.012959 0.006328 0.011387 0.004274 0.002089 0.007030 0.010858 0.001746 0.008991 -0.008379 0.007666 -0.007000 0.003338 -0.009648 0.002089 0.004538 -0.005547 0.002734 -0.004827 0.012610 0.002101 0.006213 0.000448 0.003916 0.002449 0.000698 0.009873 -0.017395 0.010855 0.013134 0.007773 0.003853 -0.003836 -0.002000 -0.010128 -0.002247 -0.019570 -0.000323 -0.000405 -0.009042 0.010209 -0.011123
pèse -0.010425 -0.000503 0.001262 -0.005725 0.012748 0.003180 -0.006459 0.007418 0.007707 0.003293 0.002301 0.010379 0.007786 -0.013593 -0.002331 -0.007349 -0.004057 -0.006901 -0.003552 0.003973 -0.016392 0.011244 -0.012860 0.009504 0.001573 0.011653 0.007740 0.011043 -0.000701 -0.008766 -0.005082 0.014543 -0.006538 0.001894 0.010700 0.003804 0.009679 0.001658 -0.004657 -0.006436 0.005985 -0.004163 0.003182 -0.006962 -0.001492 0.002272 0.003321 -0.000410 0.011805 0.002012
peut 0.000048 -0.004752 0.005604 0.004729 -0.004972 -0.005623 -0.008325 0.002534 -0.007046 0.002449 -0.000729 0.003626 0.018214 -0.003101 -0.007076 0.007685 0.004143 -0.003228 -0.001436 -0.002651 0.002618 -0.005589 0.000094 -0.005279 -0.001301 0.003231 0.017534 -0.005226 -0.003015 0.000096 -0.007383 -0.005653 -0.004953 -0.000095 -0.000061 0.010106 0.014221 0.011168 0.010500 -0.012324 0.015713 -0.011457 -0.007950 0.012086 -0.012714 0.002766 -0.000701 -0.007930 -0.000726 0.017508
plus 0.003278 -0.006758 0.008503 0.014971 0.007036 -0.008264 0.010770 0.007133 -0.015751 -0.007154 -0.002559 0.000025 0.007459 -0.003121 0.006628 0.001329 0.012979 -0.010553 -0.011457 0.001019 -0.014074 -0.005345 -0.011666 0.000673 0.008574 -0.006688 -0.001419 0.000933 -0.006450 -0.011194 0.008004 0.014070 0.003771 -0.007776 0.006497 0.012313 -0.008607 -0.003735 0.000520 -0.001889 0.011133 0.016951 0.001662 -0.001882 0.007391 0.004275 -0.002091 0.001859 -0.001936 0.006952
surélever 0.002878 0.003178 -0.010195 0.004043 0.014173 0.003434 -0.001098 0.008078 0.014216 0.017057 -0.008829 0.000430 0.003015 -0.008264 0.007856 -0.003015 -0.004130 0.003825 0.015733 -0.005900 -0.004395 0.014304 -0.002243 -0.002311 0.002112 -0.003139 -0.003762 -0.008460 -0.003910 0.000514 -0.008451 0.000416 0.008256 0.004270 0.006332 -0.005450 -0.013408 0.010081 0.000054 -0.001181 0.004499 -0.006991 -0.001130 0.006524 0.007608 0.006444 -0.018753 0.006897 -0.005001 -0.004386
traces -0.006541 0.013833 -0.001148 -0.011867 0.008367 -0.011727 0.004903 0.003763 0.011833 0.008204 0.008757 0.004778 -0.019064 -0.005755 0.001851 0.010827 0.012691 -0.006407 -0.016633 0.012542 -0.003805 0.000632 0.011214 0.008459 0.015488 -0.003232 0.004974 -0.005763 -0.000059 -0.005697 -0.006885 0.005378 -0.013389 0.007111 0.006998 -0.014894 -0.007977 -0.008996 0.010690 -0.016350 0.002783 -0.016923 0.005246 -0.011487 0.003434 -0.013746 0.000435 -0.006439 0.000771 -0.013462
vapeur -0.001518 -0.005849 -0.005741 0.001857 0.016486 -0.009992 0.000876 0.001919 0.001466 -0.009643 0.019511 0.004725 -0.007503 0.000679 -0.007025 0.009072 0.008681 -0.008159 -0.004497 0.011983 0.016198 0.003563 0.016792 -0.008475 -0.011205 -0.002621 -0.003137 -0.014174 0.002046 -0.004742 -0.001226 -0.002221 -0.019065 -0.008988 -0.000656 0.000685 0.002237 0.006582 0.005487 0.006726 -0.008651 0.002490 0.004180 -0.008500 0.003310 0.015874 -0.004592 -0.006900 -0.011427 -0.005223
<unk> 0.000567 -0.000428 -0.001249 0.000304 0.000460 -0.000016 0.001578 -0.002126 0.002180 0.000078 -0.000553 0.000890 0.001292 0.000801 -0.000576 -0.000386 0.000310 -0.000876 0.000217 -0.001919 0.000745 -0.001070 -0.002001 0.000150 -0.002187 -0.000056 -0.000079 0.000882 -0.001581 -0.001346 -0.000280 0.000905 -0.001443 0.000407 0.000338 -0.000691 0.000529 0.000504 0.001784 -0.000416 -0.000030 -0.001625 -0.001621 0.000139 0.000524 -0.000499 0.000312 0.000348 0.000638 0.000555
